n= 50640 

node), split, n, loss, yval, (yprob)
      * denotes terminal node

 1) root 50640 35947 pico (0.0014 0.17 0.29 0.25 0.28)  
   2) pe< 5004 36914 22284 pico (0 0.22 0.4 2.7e-05 0.38)  
     4) chl_small< 32518.5 16540  3018 pico (0 0.00042 0.82 6e-05 0.18) *
     5) chl_small>=32518.5 20374  9238 ultra (0 0.4 0.054 0 0.55)  
      10) chl_small>=41297.5 7257   937 nano (0 0.87 0 0 0.13) *
      11) chl_small< 41297.5 13117  2918 ultra (0 0.14 0.084 0 0.78) *
   3) pe>=5004 13726  1049 synecho (0.005 0.052 0.0046 0.92 0.015)  
     6) chl_small>=38330.5 877   186 nano (0.079 0.79 0 0.064 0.07) *
     7) chl_small< 38330.5 12849   228 synecho (0 0.0013 0.0049 0.98 0.012) *
