n= 50640 

node), split, n, loss, yval, (yprob)
      * denotes terminal node

 1) root 50640 36031 pico (0.0015 0.18 0.29 0.25 0.28)  
   2) pe< 5006.5 36893 22340 pico (0 0.22 0.39 5.4e-05 0.38)  
     4) chl_small< 32164 15964  2741 pico (0 0.00019 0.83 0.00013 0.17) *
     5) chl_small>=32164 20929  9475 ultra (0 0.39 0.064 0 0.55)  
      10) chl_small>=41286.5 7294   938 nano (0 0.87 0 0 0.13) *
      11) chl_small< 41286.5 13635  3119 ultra (0 0.13 0.098 0 0.77) *
   3) pe>=5006.5 13747  1047 synecho (0.0055 0.053 0.0041 0.92 0.014)  
     6) chl_small>=38276 891   185 nano (0.085 0.79 0 0.061 0.062) *
     7) chl_small< 38276 12856   210 synecho (0 0.0013 0.0044 0.98 0.011) *
