n= 50640 

node), split, n, loss, yval, (yprob)
      * denotes terminal node

 1) root 50640 36027 pico (0.0015 0.18 0.29 0.25 0.28)  
   2) pe< 5004 36814 22259 pico (0 0.22 0.4 5.4e-05 0.38)  
     4) chl_small< 32537.5 16546  3066 pico (0 0.00024 0.81 0.00012 0.18) *
     5) chl_small>=32537.5 20268  9192 ultra (0 0.4 0.053 0 0.55)  
      10) chl_small>=41289.5 7255   934 nano (0 0.87 0 0 0.13) *
      11) chl_small< 41289.5 13013  2871 ultra (0 0.14 0.083 0 0.78) *
   3) pe>=5004 13826  1074 synecho (0.0054 0.054 0.0042 0.92 0.014)  
     6) chl_small>=37883 932   200 nano (0.079 0.79 0 0.064 0.071) *
     7) chl_small< 37883 12894   202 synecho (0 0.00093 0.0045 0.98 0.01) *
